{"model":[{"layer":[{"weights":[-0.3152914021836963, -0.7465842828061249],"bias":-0.34160211323744116,"type":"ReLU"},{"weights":[-0.6508443119464039, 1.255771492436983],"bias":0.416418915008137,"type":"ReLU"},{"weights":[0.2502219244677686, 0.18176908945856496],"bias":-0.6422722346837274,"type":"ReLU"},{"weights":[0.950690182891122, -1.0952413792732278],"bias":-0.9070914439580328,"type":"ReLU"},{"weights":[-0.2733151512847894, -0.7845766231019136],"bias":0.020822037238890923,"type":"ReLU"},{"weights":[0.7814737298546202, 0.7691795052894448],"bias":-0.2945479681160003,"type":"ReLU"},{"weights":[-0.546586550302263, 0.33215713539462144],"bias":1.1703369806899684,"type":"ReLU"},{"weights":[-0.9923200749202895, 0.6971723757007322],"bias":-0.3262442334608251,"type":"ReLU"},{"weights":[0.37796008604110515, 0.17832671762947963],"bias":-0.8842808404578104,"type":"ReLU"},{"weights":[0.7727197770746415, 0.8651883974625718],"bias":-0.35241843207708606,"type":"ReLU"},{"weights":[-1.5431945481473688, 0.3001350859691537],"bias":-0.16008559827756075,"type":"ReLU"},{"weights":[0.08229756400152181, 0.8591690938160456],"bias":0.2828304284144851,"type":"ReLU"},{"weights":[-0.08269213253308655, 0.9175787855430977],"bias":-0.5057933971519946,"type":"ReLU"},{"weights":[0.4457795799857251, -0.6069736074562703],"bias":0.08117380922208346,"type":"ReLU"},{"weights":[0.2748264841632472, -0.9033081728595445],"bias":-0.057578744826108384,"type":"ReLU"},{"weights":[1.0451731116561707, 1.028957637579837],"bias":-0.4351909228819277,"type":"ReLU"}]},{"layer":[{"weights":[-0.4701760828183005, 0.8232805861025461, -0.19716880523256664, -0.6024151468082782, 0.6408186779034125, -0.6255191574921118, -0.5974648202838243, -0.3603439875473778, -0.4726428834889132, 0.5450974416421549, 1.2401183290447975, -0.33486962440007645, 0.16421367701057277, -0.3886443268480293, 0.7199810120885629, -0.1122368619597224],"bias":-0.05269891379056864,"type":"ReLU"},{"weights":[0.8069409511213221, -0.7931706044810771, 0.7562757302999157, -0.7167612664775151, 0.8575982129928316, -0.5297662160510814, -0.7641798845325034, -0.19034521468871884, 0.2627704607896737, -0.34288619084757654, 0.15293983228271302, -0.05224879281355493, -0.200086373508125, 0.16400997723330324, -0.448876655632349, 0.3897415547707426],"bias":-0.15253344469499938,"type":"ReLU"},{"weights":[-0.9415968218555277, 0.7806202718456345, 0.02044326941606871, 0.09997056012717058, 0.4562673694742364, 0.15715410901749483, -0.31017576053087, -0.7950471229703966, 0.2823325001911993, -0.39213852828793333, -0.3372294014995163, 0.6831797783885813, 0.3439120382375583, -0.5011100228465009, -0.49756659714212226, -0.2727446233849972],"bias":-0.19579381052646902,"type":"ReLU"},{"weights":[-0.20473026661179505, -0.2587899707642192, -0.6122649840260227, 0.1104982652455302, 0.7992524011430922, -0.09994505114860493, 0.720596792223704, 0.10721816405077172, -0.30225634224640496, -0.21683135113494595, -1.1608821421392175, -0.3822990310946166, -0.19539653213645178, 0.058022061073066955, 0.4574649640325966, -0.6898310462770452],"bias":0.18239262225630493,"type":"ReLU"},{"weights":[-0.13359809259644767, -0.6032152425175547, -0.09950011366546929, 0.7434541189151515, 0.5411390465241919, -0.6446195116828456, -0.8100860714683698, -0.04706392374006014, 0.1847928667058637, -0.3146751358944195, 0.5171793437036787, 0.41392161158937446, 0.3251800017703449, -0.5099428167028378, -0.5544436620587894, -0.9071153031058525],"bias":-0.0934646579023758,"type":"ReLU"},{"weights":[-0.48227428178423604, -0.051743643461177616, 0.6493326116698068, -0.8123362141344549, -0.16171543889327167, 0.2334278649018734, -0.5789269808072576, 0.36624157484546727, -0.025616869665940126, -0.4962348795463634, 0.29274398165557003, -0.9397640562722197, 0.4624721750675314, 0.5066079149924904, -0.7462005254393714, -0.15450393533176057],"bias":-0.01694891405146105,"type":"ReLU"},{"weights":[-0.5137227388499453, 0.4967368196761295, -0.11190288674567685, -1.363514393836402, -0.31801010680387065, 0.8742908947562332, -0.05508214418844141, 0.9829287903479427, 0.12856758134067142, 0.8184814206949933, 0.8352982554833158, 0.7339150489233417, 0.61847058148388, 0.05908907171276066, 0.09572681709442196, 0.16439216566013354],"bias":-0.245858670214736,"type":"ReLU"},{"weights":[0.5786838590669612, -0.04566046950693929, 0.49830429884141697, 0.2580539182988517, -0.07679047058838781, -0.6358862526022877, -0.5283565734045248, 0.11219641687830051, 0.181461079592338, 0.00039645486183945806, 0.12161929182140943, -0.5736980000014403, -0.8248835088525087, -0.40926984559103097, -0.4352392402639825, -0.4086001721800662],"bias":-0.3081334157124023,"type":"ReLU"},{"weights":[0.10573886403761175, -0.6560986529892897, -0.6193469747720268, 0.05274223631814299, 0.3982384742648654, -0.928316467174709, -0.17040666103312185, 0.12537410858743733, -0.2920016695329627, -0.6718128148185037, -0.09485000247559823, 0.7904644440058058, 0.04465824423480689, 0.11462672919836533, 0.42178467182442037, 0.33579924626003177],"bias":-0.28786692592754715,"type":"ReLU"},{"weights":[-0.22609236776279634, -1.0268590881571573, -0.3146514812565095, 0.6430587877156252, 0.6689579581963659, 0.9541447309934133, -0.5723274305178551, 0.442027140522809, 0.031930431672144106, 0.40691986536006874, -0.5321817835507845, -0.5237092035717431, -0.04209730330347386, -0.7972826989726918, -0.170351331232439, 0.5162030061500209],"bias":-0.3927998191020742,"type":"ReLU"},{"weights":[-0.18085150403968292, -0.6331004951635706, -0.06163602902087221, -0.7038224141793711, 0.2310784446173324, -0.8940828863623331, -0.20031280125767076, 0.1217075834753246, -0.8938265986963443, 0.2698117666990482, -0.6885660758565392, -0.07239394717882747, -0.8500090840308616, -0.22850634271513487, -0.5449922238779439, -0.32727954112552665],"bias":0.0,"type":"ReLU"},{"weights":[0.45197082292379437, -0.6134281540465073, 0.18355725319115013, 0.7870484361065091, -0.49805653185991655, -0.8932989809651225, -1.053282820939373, -0.31968469714708436, 0.5425891790688391, -0.21795734067428213, -0.037049110636107094, 0.13842621787097661, 0.3404490334901149, 0.7871571544750048, 1.1231044765756248, -0.45829178742693977],"bias":-0.18074517205985252,"type":"ReLU"},{"weights":[-0.9236752042573911, -0.7187646157725925, -0.7017413201732772, 0.37606604707047825, 0.08920516010717404, -0.5847847186022184, 0.2894844234220386, 0.42146914044785905, -0.6270385438138973, 0.18676623543160897, 0.2864724975340606, -0.758943153317161, 0.6043997151142559, 0.94159497505089, -0.6800123620024925, -0.963848971306514],"bias":0.1589972776096354,"type":"ReLU"},{"weights":[-0.37841122485857664, 0.3117487646492352, 0.867258364503007, -0.1425815348237548, 0.3815937723422664, -0.9535875254308918, 0.3149079152731751, 0.08454482452923491, -0.7551210316350013, 0.42581937685251253, 0.4726570453161561, 0.11674229736915205, -0.7218743761905861, 0.9003603031722279, 0.6128030389767678, -0.461357083589218],"bias":-0.061124603988595295,"type":"ReLU"},{"weights":[-0.1435461245380798, -0.4781960927762137, -0.19908662708710195, -0.3818622019115373, 0.6476716402036553, 0.4830451057416408, -1.0841791437905222, 0.699995558552887, -0.01056950844905264, 0.6292377068352788, 0.262184900344444, -0.28484418311251036, 0.4113061697555698, 0.8251147989041807, -0.4146184268965744, 0.5203486089050617],"bias":-0.633112000098034,"type":"ReLU"},{"weights":[0.05733314800678877, 0.12148780614343978, -0.230304609028878, 0.3086615494820428, -0.46638314281467014, 0.12346536629285546, 0.7806909032989547, -1.052257412026394, 0.5804495982904871, -0.662329896034283, -0.42196176720190776, 0.16608150139721814, -0.24221651638242098, -0.8135844963593206, 0.8178733334353437, -0.9781659376086481],"bias":0.33000710778249354,"type":"ReLU"}]},{"layer":[{"weights":[-0.6709644935296215, 0.39724655236955264, 0.2231883168848834, 0.7214586071597784, 0.2294146030895165, -0.42069720329700866, -1.0773314307735455, 0.4737845155499913, -0.5191745309685876, 1.0203370035843546, -0.02158906424087459, 0.6625912376300762, 0.484895516121003, 0.4199064720566169, 0.8853115555762346, 1.0874087589136208],"bias":-0.12435719042076099,"type":"Linear"}]}]}